<?xml version="1.0"?>
<opencv_storage>
<cascade>
  <stageType>BOOST</stageType>
  <featureType>HOG</featureType>
  <height>24</height>
  <width>24</width>
  <stageParams>
    <boostType>GAB</boostType>
    <minHitRate>9.9500000476837158e-01</minHitRate>
    <maxFalseAlarm>5.0000000000000000e-01</maxFalseAlarm>
    <weightTrimRate>9.4999999999999996e-01</weightTrimRate>
    <maxDepth>1</maxDepth>
    <maxWeakCount>100</maxWeakCount></stageParams>
  <featureParams>
    <maxCatCount>0</maxCatCount>
    <featSize>36</featSize></featureParams>
  <stageNum>20</stageNum>
  <stages>
    <!-- stage 0 -->
    <_>
      <maxWeakCount>6</maxWeakCount>
      <stageThreshold>-6.8983578681945801e-01</stageThreshold>
      <weakClassifiers>
        <_>
          <internalNodes>
            0 -1 113 7.0749975740909576e-02</internalNodes>
          <leafValues>
            -5.7615894079208374e-01 6.2575453519821167e-01</leafValues></_>
        <_>
          <internalNodes>
            0 -1 94 2.5300476700067520e-02</internalNodes>
          <leafValues>
            -5.3900659084320068e-01 5.5656194686889648e-01</leafValues></_>
        <_>
          <internalNodes>
            0 -1 4 2.2256994619965553e-02</internalNodes>
          <leafValues>
            -6.6214609146118164e-01 4.4006890058517456e-01</leafValues></_>
        <_>
          <internalNodes>
            0 -1 108 2.1241812035441399e-02</internalNodes>
          <leafValues>
            -5.6885355710983276e-01 4.5522952079772949e-01</leafValues></_>
        <_>
          <internalNodes>
            0 -1 101 1.9420051947236061e-02</internalNodes>
          <leafValues>
            3.3281034231185913e-01 -7.6970994472503662e-01</leafValues></_>
        <_>
          <internalNodes>
            0 -1 16 1.6055610030889511e-02</internalNodes>
          <leafValues>
            -7.6838403940200806e-01 3.0638769268989563e-01</leafValues></_></weakClassifiers></_>
    <!-- stage 1 -->
    <_>
      <maxWeakCount>8</maxWeakCount>
      <stageThreshold>-1.1324518918991089e+00</stageThreshold>
      <weakClassifiers>
        <_>
          <internalNodes>
            0 -1 113 4.2633831501007080e-02</internalNodes>
          <leafValues>
            -7.9720282554626465e-01 4.1867470741271973e-01</leafValues></_>
        <_>
          <internalNodes>
            0 -1 12 1.9735880196094513e-02</internalNodes>
          <leafValues>
            -6.4650154113769531e-01 3.2356697320938110e-01</leafValues></_>
        <_>
          <internalNodes>
            0 -1 62 1.8760122358798981e-02</internalNodes>
          <leafValues>
            -5.9071946144104004e-01 3.7508723139762878e-01</leafValues></_>
        <_>
          <internalNodes>
            0 -1 41 2.5080092251300812e-02</internalNodes>
          <leafValues>
            2.2300937771797180e-01 -8.2708448171615601e-01</leafValues></_>
        <_>
          <internalNodes>
            0 -1 24 1.3678366318345070e-02</internalNodes>
          <leafValues>
            3.7991020083427429e-01 -5.2098459005355835e-01</leafValues></_>
        <_>
          <internalNodes>
            0 -1 60 2.6862703263759613e-02</internalNodes>
          <leafValues>
            -4.8703169822692871e-01 4.1742920875549316e-01</leafValues></_>
        <_>
          <internalNodes>
            0 -1 109 1.5905965119600296e-02</internalNodes>
          <leafValues>
            -7.5418555736541748e-01 2.9096093773841858e-01</leafValues></_>
        <_>
          <internalNodes>
            0 -1 13 2.9749315232038498e-02</internalNodes>
          <leafValues>
            -4.0884566307067871e-01 4.9155703186988831e-01</leafValues></_></weakClassifiers></_>
    <!-- stage 2 -->
    <_>
      <maxWeakCount>8</maxWeakCount>
      <stageThreshold>-8.0661481618881226e-01</stageThreshold>
      <weakClassifiers>
        <_>
          <internalNodes>
            0 -1 113 5.4571893066167831e-02</internalNodes>
          <leafValues>
            -6.3157892227172852e-01 3.7461301684379578e-01</leafValues></_>
        <_>
          <internalNodes>
            0 -1 35 1.2495900504291058e-02</internalNodes>
          <leafValues>
            -6.2665563821792603e-01 2.4185833334922791e-01</leafValues></_>
        <_>
          <internalNodes>
            0 -1 76 2.7620323002338409e-02</internalNodes>
          <leafValues>
            -6.1986106634140015e-01 2.4302834272384644e-01</leafValues></_>
        <_>
          <internalNodes>
            0 -1 104 1.0574086569249630e-02</internalNodes>
          <leafValues>
            -7.9131925106048584e-01 1.8899050354957581e-01</leafValues></_>
        <_>
          <internalNodes>
            0 -1 59 2.0835779607295990e-02</internalNodes>
          <leafValues>
            -5.2643221616744995e-01 2.5791352987289429e-01</leafValues></_>
        <_>
          <internalNodes>
            0 -1 112 1.5026606619358063e-02</internalNodes>
          <leafValues>
            2.3559251427650452e-01 -6.6156703233718872e-01</leafValues></_>
        <_>
          <internalNodes>
            0 -1 94 2.7808552607893944e-02</internalNodes>
          <leafValues>
            -4.8520541191101074e-01 2.7783727645874023e-01</leafValues></_>
        <_>
          <internalNodes>
            0 -1 103 2.1995631977915764e-02</internalNodes>
          <leafValues>
            1.6089795529842377e-01 -7.2309684753417969e-01</leafValues></_></weakClassifiers></_>
    <!-- stage 3 -->
    <_>
      <maxWeakCount>10</maxWeakCount>
      <stageThreshold>-1.0716646909713745e+00</stageThreshold>
      <weakClassifiers>
        <_>
          <internalNodes>
            0 -1 40 9.7185894846916199e-02</internalNodes>
          <leafValues>
            -3.1947070360183716e-01 5.2019000053405762e-01</leafValues></_>
        <_>
          <internalNodes>
            0 -1 122 1.9100919365882874e-02</internalNodes>
          <leafValues>
            -4.5487198233604431e-01 3.4202158451080322e-01</leafValues></_>
        <_>
          <internalNodes>
            0 -1 16 1.3605458661913872e-02</internalNodes>
          <leafValues>
            -7.4596554040908813e-01 2.0385544002056122e-01</leafValues></_>
        <_>
          <internalNodes>
            0 -1 111 1.1732289567589760e-02</internalNodes>
          <leafValues>
            2.5998616218566895e-01 -5.3743386268615723e-01</leafValues></_>
        <_>
          <internalNodes>
            0 -1 13 2.4376519024372101e-02</internalNodes>
          <leafValues>
            -4.7041878104209900e-01 3.2733097672462463e-01</leafValues></_>
        <_>
          <internalNodes>
            0 -1 62 2.8065901249647141e-02</internalNodes>
          <leafValues>
            -4.0088304877281189e-01 3.4958514571189880e-01</leafValues></_>
        <_>
          <internalNodes>
            0 -1 54 3.7096075713634491e-02</internalNodes>
          <leafValues>
            -4.6474951505661011e-01 2.6972749829292297e-01</leafValues></_>
        <_>
          <internalNodes>
            0 -1 12 1.2256017886102200e-02</internalNodes>
          <leafValues>
            -7.4728471040725708e-01 1.7832383513450623e-01</leafValues></_>
        <_>
          <internalNodes>
            0 -1 23 9.4382613897323608e-03</internalNodes>
          <leafValues>
            3.1453520059585571e-01 -3.6224290728569031e-01</leafValues></_>
        <_>
          <internalNodes>
            0 -1 110 1.6660746186971664e-02</internalNodes>
          <leafValues>
            -7.0689803361892700e-01 1.6093629598617554e-01</leafValues></_></weakClassifiers></_>
    <!-- stage 4 -->
    <_>
      <maxWeakCount>15</maxWeakCount>
      <stageThreshold>-1.3680069446563721e+00</stageThreshold>
      <weakClassifiers>
        <_>
          <internalNodes>
            0 -1 81 5.5469319224357605e-02</internalNodes>
          <leafValues>
            -5.1603496074676514e-01 3.7397035956382751e-01</leafValues></_>
        <_>
          <internalNodes>
            0 -1 122 1.1747134849429131e-02</internalNodes>
          <leafValues>
            -6.6941124200820923e-01 2.0825012028217316e-01</leafValues></_>
        <_>
          <internalNodes>
            0 -1 72 2.7014102786779404e-02</internalNodes>
          <leafValues>
            -5.7141894102096558e-01 2.2311615943908691e-01</leafValues></_>
        <_>
          <internalNodes>
            0 -1 12 2.8193378821015358e-02</internalNodes>
          <leafValues>
            -3.7016734480857849e-01 3.1590670347213745e-01</leafValues></_>
        <_>
          <internalNodes>
            0 -1 61 2.2830715402960777e-02</internalNodes>
          <leafValues>
            -4.2099842429161072e-01 2.7545064687728882e-01</leafValues></_>
        <_>
          <internalNodes>
            0 -1 101 1.2150090187788010e-02</internalNodes>
          <leafValues>
            2.1818497776985168e-01 -4.4389790296554565e-01</leafValues></_>
        <_>
          <internalNodes>
            0 -1 2 2.8838157653808594e-02</internalNodes>
          <leafValues>
            -3.0586126446723938e-01 3.6785316467285156e-01</leafValues></_>
        <_>
          <internalNodes>
            0 -1 105 1.6438696533441544e-02</internalNodes>
          <leafValues>
            -4.4133201241493225e-01 2.8162690997123718e-01</leafValues></_>
        <_>
          <internalNodes>
            0 -1 78 3.6494135856628418e-02</internalNodes>
          <leafValues>
            1.2066283822059631e-01 -6.7374038696289062e-01</leafValues></_>
        <_>
          <internalNodes>
            0 -1 109 1.2395883910357952e-02</internalNodes>
          <leafValues>
            -7.9072046279907227e-01 1.0847894847393036e-01</leafValues></_>
        <_>
          <internalNodes>
            0 -1 40 3.2913140952587128e-02</internalNodes>
          <leafValues>
            -6.9862407445907593e-01 1.4483806490898132e-01</leafValues></_>
        <_>
          <internalNodes>
            0 -1 36 1.5760228037834167e-02</internalNodes>
          <leafValues>
            -5.0692439079284668e-01 2.2147539258003235e-01</leafValues></_>
        <_>
          <internalNodes>
            0 -1 4 2.5031611323356628e-02</internalNodes>
          <leafValues>
            -4.8911321163177490e-01 2.0685704052448273e-01</leafValues></_>
        <_>
          <internalNodes>
            0 -1 16 2.7792848646640778e-02</internalNodes>
          <leafValues>
            -3.1866511702537537e-01 2.9838332533836365e-01</leafValues></_>
        <_>
          <internalNodes>
            0 -1 83 2.3611875250935555e-02</internalNodes>
          <leafValues>
            -6.1834728717803955e-01 1.6824954748153687e-01</leafValues></_></weakClassifiers></_>
    <!-- stage 5 -->
    <_>
      <maxWeakCount>10</maxWeakCount>
      <stageThreshold>-1.0983029603958130e+00</stageThreshold>
      <weakClassifiers>
        <_>
          <internalNodes>
            0 -1 114 1.1598613113164902e-02</internalNodes>
          <leafValues>
            3.4810125827789307e-01 -5.3459119796752930e-01</leafValues></_>
        <_>
          <internalNodes>
            0 -1 73 2.2020593285560608e-02</internalNodes>
          <leafValues>
            2.5487369298934937e-01 -4.4111984968185425e-01</leafValues></_>
        <_>
          <internalNodes>
            0 -1 39 1.7853494733572006e-02</internalNodes>
          <leafValues>
            2.0636634528636932e-01 -5.9291201829910278e-01</leafValues></_>
        <_>
          <internalNodes>
            0 -1 15 6.8614087998867035e-02</internalNodes>
          <leafValues>
            1.3976235687732697e-01 -7.9975116252899170e-01</leafValues></_>
        <_>
          <internalNodes>
            0 -1 116 6.0165366157889366e-03</internalNodes>
          <leafValues>
            -7.3801320791244507e-01 1.1829759925603867e-01</leafValues></_>
        <_>
          <internalNodes>
            0 -1 69 3.3078715205192566e-02</internalNodes>
          <leafValues>
            -5.1740014553070068e-01 1.8668466806411743e-01</leafValues></_>
        <_>
          <internalNodes>
            0 -1 59 3.7306807935237885e-02</internalNodes>
          <leafValues>
            -2.6023477315902710e-01 4.1163447499275208e-01</leafValues></_>
        <_>
          <internalNodes>
            0 -1 108 2.1759804338216782e-02</internalNodes>
          <leafValues>
            -4.9004614353179932e-01 2.0511241257190704e-01</leafValues></_>
        <_>
          <internalNodes>
            0 -1 55 3.3870164304971695e-02</internalNodes>
          <leafValues>
            -4.1899827122688293e-01 2.3205159604549408e-01</leafValues></_>
        <_>
          <internalNodes>
            0 -1 2 3.0842568725347519e-02</internalNodes>
          <leafValues>
            -3.2205954194068909e-01 4.0450257062911987e-01</leafValues></_></weakClassifiers></_>
    <!-- stage 6 -->
    <_>
      <maxWeakCount>14</maxWeakCount>
      <stageThreshold>-1.2753568887710571e+00</stageThreshold>
      <weakClassifiers>
        <_>
          <internalNodes>
            0 -1 24 1.6119338572025299e-02</internalNodes>
          <leafValues>
            2.7802038192749023e-01 -5.3612166643142700e-01</leafValues></_>
        <_>
          <internalNodes>
            0 -1 62 2.0739236846566200e-02</internalNodes>
          <leafValues>
            -5.3626751899719238e-01 2.4537704885005951e-01</leafValues></_>
        <_>
          <internalNodes>
            0 -1 113 1.1506070196628571e-01</internalNodes>
          <leafValues>
            -2.6054227352142334e-01 5.1510196924209595e-01</leafValues></_>
        <_>
          <internalNodes>
            0 -1 107 1.8868599086999893e-02</internalNodes>
          <leafValues>
            -4.6219471096992493e-01 2.5103330612182617e-01</leafValues></_>
        <_>
          <internalNodes>
            0 -1 60 1.6670823097229004e-02</internalNodes>
          <leafValues>
            -5.8561480045318604e-01 1.6505847871303558e-01</leafValues></_>
        <_>
          <internalNodes>
            0 -1 104 1.4510918408632278e-02</internalNodes>
          <leafValues>
            -6.1666929721832275e-01 1.8941071629524231e-01</leafValues></_>
        <_>
          <internalNodes>
            0 -1 85 2.3444112390279770e-02</internalNodes>
          <leafValues>
            1.3894380629062653e-01 -5.2421247959136963e-01</leafValues></_>
        <_>
          <internalNodes>
            0 -1 96 1.6149517148733139e-02</internalNodes>
          <leafValues>
            -4.0598124265670776e-01 2.3553521931171417e-01</leafValues></_>
        <_>
          <internalNodes>
            0 -1 113 3.0574850738048553e-02</internalNodes>
          <leafValues>
            -7.7615964412689209e-01 1.5159098803997040e-01</leafValues></_>
        <_>
          <internalNodes>
            0 -1 35 1.1095194146037102e-02</internalNodes>
          <leafValues>
            -6.3834065198898315e-01 1.4073038101196289e-01</leafValues></_>
        <_>
          <internalNodes>
            0 -1 57 4.8993967473506927e-02</internalNodes>
          <leafValues>
            -3.5058897733688354e-01 2.6048138737678528e-01</leafValues></_>
        <_>
          <internalNodes>
            0 -1 5 6.3327357172966003e-02</internalNodes>
          <leafValues>
            -1.3391952216625214e-01 7.5462764501571655e-01</leafValues></_>
        <_>
          <internalNodes>
            0 -1 123 1.1749155819416046e-02</internalNodes>
          <leafValues>
            -6.2695169448852539e-01 1.8871192634105682e-01</leafValues></_>
        <_>
          <internalNodes>
            0 -1 13 3.6785133183002472e-02</internalNodes>
          <leafValues>
            -2.5297987461090088e-01 4.0939638018608093e-01</leafValues></_></weakClassifiers></_>
    <!-- stage 7 -->
    <_>
      <maxWeakCount>19</maxWeakCount>
      <stageThreshold>-1.0754168033599854e+00</stageThreshold>
      <weakClassifiers>
        <_>
          <internalNodes>
            0 -1 40 7.7069461345672607e-02</internalNodes>
          <leafValues>
            -4.1145834326744080e-01 3.6749115586280823e-01</leafValues></_>
        <_>
          <internalNodes>
            0 -1 20 1.3661514967679977e-02</internalNodes>
          <leafValues>
            2.1542243659496307e-01 -4.1665878891944885e-01</leafValues></_>
        <_>
          <internalNodes>
            0 -1 52 1.2068912386894226e-02</internalNodes>
          <leafValues>
            -6.2027710676193237e-01 1.5614183247089386e-01</leafValues></_>
        <_>
          <internalNodes>
            0 -1 27 2.1263759583234787e-02</internalNodes>
          <leafValues>
            -6.0982567071914673e-01 1.5222127735614777e-01</leafValues></_>
        <_>
          <internalNodes>
            0 -1 41 2.4748697876930237e-02</internalNodes>
          <leafValues>
            1.2021722644567490e-01 -6.7265868186950684e-01</leafValues></_>
        <_>
          <internalNodes>
            0 -1 31 5.9120450168848038e-02</internalNodes>
          <leafValues>
            1.5947254002094269e-01 -5.9709066152572632e-01</leafValues></_>
        <_>
          <internalNodes>
            0 -1 62 1.1086566373705864e-02</internalNodes>
          <leafValues>
            -7.8998291492462158e-01 5.1012415438890457e-02</leafValues></_>
        <_>
          <internalNodes>
            0 -1 78 1.5467243269085884e-02</internalNodes>
          <leafValues>
            2.8528091311454773e-01 -2.9032635688781738e-01</leafValues></_>
        <_>
          <internalNodes>
            0 -1 34 1.2529058381915092e-02</internalNodes>
          <leafValues>
            -5.1039367914199829e-01 1.5286074578762054e-01</leafValues></_>
        <_>
          <internalNodes>
            0 -1 122 2.0506527274847031e-02</internalNodes>
          <leafValues>
            -3.8776847720146179e-01 2.4445228278636932e-01</leafValues></_>
        <_>
          <internalNodes>
            0 -1 80 2.1451488137245178e-02</internalNodes>
          <leafValues>
            1.4940582215785980e-01 -4.9446839094161987e-01</leafValues></_>
        <_>
          <internalNodes>
            0 -1 117 1.0140292346477509e-02</internalNodes>
          <leafValues>
            -5.6346946954727173e-01 1.3998816907405853e-01</leafValues></_>
        <_>
          <internalNodes>
            0 -1 115 4.8239873722195625e-03</internalNodes>
          <leafValues>
            3.5391494631767273e-01 -2.2886644303798676e-01</leafValues></_>
        <_>
          <internalNodes>
            0 -1 95 8.1310626119375229e-03</internalNodes>
          <leafValues>
            -5.9285700321197510e-01 1.4267961680889130e-01</leafValues></_>
        <_>
          <internalNodes>
            0 -1 93 3.2361723482608795e-02</internalNodes>
          <leafValues>
            -3.1461533904075623e-01 2.9680249094963074e-01</leafValues></_>
        <_>
          <internalNodes>
            0 -1 105 2.1217703819274902e-02</internalNodes>
          <leafValues>
            -3.0022361874580383e-01 2.7697393298149109e-01</leafValues></_>
        <_>
          <internalNodes>
            0 -1 46 7.5701773166656494e-02</internalNodes>
          <leafValues>
            -1.1116853356361389e-01 7.5820177793502808e-01</leafValues></_>
        <_>
          <internalNodes>
            0 -1 103 6.8059517070651054e-03</internalNodes>
          <leafValues>
            3.6857473850250244e-01 -2.1169179677963257e-01</leafValues></_>
        <_>
          <internalNodes>
            0 -1 32 2.5569660589098930e-02</internalNodes>
          <leafValues>
            -6.0149008035659790e-01 1.3054391741752625e-01</leafValues></_></weakClassifiers></_>
    <!-- stage 8 -->
    <_>
      <maxWeakCount>18</maxWeakCount>
      <stageThreshold>-1.0450971126556396e+00</stageThreshold>
      <weakClassifiers>
        <_>
          <internalNodes>
            0 -1 17 1.4483314007520676e-02</internalNodes>
          <leafValues>
            -5.3571426868438721e-01 2.3415978252887726e-01</leafValues></_>
        <_>
          <internalNodes>
            0 -1 40 1.4994193613529205e-01</internalNodes>
          <leafValues>
            -1.6259214282035828e-01 6.4181697368621826e-01</leafValues></_>
        <_>
          <internalNodes>
            0 -1 44 3.4078359603881836e-02</internalNodes>
          <leafValues>
            1.4425657689571381e-01 -6.2047904729843140e-01</leafValues></_>
        <_>
          <internalNodes>
            0 -1 16 1.5987444669008255e-02</internalNodes>
          <leafValues>
            -5.4865771532058716e-01 1.4916601777076721e-01</leafValues></_>
        <_>
          <internalNodes>
            0 -1 102 2.5529723614454269e-02</internalNodes>
          <leafValues>
            9.0190261602401733e-02 -7.6516425609588623e-01</leafValues></_>
        <_>
          <internalNodes>
            0 -1 62 3.3578529953956604e-02</internalNodes>
          <leafValues>
            -3.2445171475410461e-01 2.5649115443229675e-01</leafValues></_>
        <_>
          <internalNodes>
            0 -1 71 3.6048155277967453e-02</internalNodes>
          <leafValues>
            1.6948831081390381e-01 -7.2315061092376709e-01</leafValues></_>
        <_>
          <internalNodes>
            0 -1 52 3.2815679907798767e-02</internalNodes>
          <leafValues>
            -2.8453439474105835e-01 4.1258972883224487e-01</leafValues></_>
        <_>
          <internalNodes>
            0 -1 122 7.8377053141593933e-03</internalNodes>
          <leafValues>
            -7.5105887651443481e-01 8.4827430546283722e-02</leafValues></_>
        <_>
          <internalNodes>
            0 -1 58 6.0952547937631607e-03</internalNodes>
          <leafValues>
            -7.2475749254226685e-01 1.0139545798301697e-01</leafValues></_>
        <_>
          <internalNodes>
            0 -1 40 6.5419241786003113e-02</internalNodes>
          <leafValues>
            -4.4213294982910156e-01 1.7524273693561554e-01</leafValues></_>
        <_>
          <internalNodes>
            0 -1 67 1.1777078732848167e-02</internalNodes>
          <leafValues>
            -5.2854794263839722e-01 1.5044356882572174e-01</leafValues></_>
        <_>
          <internalNodes>
            0 -1 21 1.9800581037998199e-02</internalNodes>
          <leafValues>
            2.2322455048561096e-01 -4.0701326727867126e-01</leafValues></_>
        <_>
          <internalNodes>
            0 -1 53 2.1264452487230301e-02</internalNodes>
          <leafValues>
            -4.5281475782394409e-01 1.8570052087306976e-01</leafValues></_>
        <_>
          <internalNodes>
            0 -1 61 2.2781729698181152e-02</internalNodes>
          <leafValues>
            -4.0666633844375610e-01 1.9489294290542603e-01</leafValues></_>
        <_>
          <internalNodes>
            0 -1 93 2.7799524366855621e-02</internalNodes>
          <leafValues>
            -3.7985098361968994e-01 1.6934652626514435e-01</leafValues></_>
        <_>
          <internalNodes>
            0 -1 22 3.1434729695320129e-02</internalNodes>
          <leafValues>
            1.2741422653198242e-01 -5.9099632501602173e-01</leafValues></_>
        <_>
          <internalNodes>
            0 -1 28 3.8546338677406311e-02</internalNodes>
          <leafValues>
            8.6577951908111572e-02 -7.1234470605850220e-01</leafValues></_></weakClassifiers></_>
    <!-- stage 9 -->
    <_>
      <maxWeakCount>18</maxWeakCount>
      <stageThreshold>-1.0617499351501465e+00</stageThreshold>
      <weakClassifiers>
        <_>
          <internalNodes>
            0 -1 19 9.0158767998218536e-03</internalNodes>
          <leafValues>
            3.3580705523490906e-01 -3.1873479485511780e-01</leafValues></_>
        <_>
          <internalNodes>
            0 -1 29 1.1696766130626202e-02</internalNodes>
          <leafValues>
            -5.3028571605682373e-01 1.7664694786071777e-01</leafValues></_>
        <_>
          <internalNodes>
            0 -1 54 3.1637728214263916e-02</internalNodes>
          <leafValues>
            -4.6898871660232544e-01 2.3705592751502991e-01</leafValues></_>
        <_>
          <internalNodes>
            0 -1 15 5.6927330791950226e-02</internalNodes>
          <leafValues>
            1.1319588869810104e-01 -5.8442896604537964e-01</leafValues></_>
        <_>
          <internalNodes>
            0 -1 113 4.0466770529747009e-02</internalNodes>
          <leafValues>
            -7.6112180948257446e-01 1.2419121712446213e-01</leafValues></_>
        <_>
          <internalNodes>
            0 -1 98 7.4410387314856052e-03</internalNodes>
          <leafValues>
            -5.6638681888580322e-01 1.6626869142055511e-01</leafValues></_>
        <_>
          <internalNodes>
            0 -1 42 5.3099654614925385e-03</internalNodes>
          <leafValues>
            2.7956804633140564e-01 -3.2047224044799805e-01</leafValues></_>
        <_>
          <internalNodes>
            0 -1 119 8.2425445318222046e-02</internalNodes>
          <leafValues>
            1.2121769785881042e-01 -7.1097630262374878e-01</leafValues></_>
        <_>
          <internalNodes>
            0 -1 99 2.4705862626433372e-02</internalNodes>
          <leafValues>
            1.1081116646528244e-01 -5.0188881158828735e-01</leafValues></_>
        <_>
          <internalNodes>
            0 -1 56 6.7964224144816399e-03</internalNodes>
          <leafValues>
            -7.2616475820541382e-01 1.1266128718852997e-01</leafValues></_>
        <_>
          <internalNodes>
            0 -1 41 2.8766676783561707e-02</internalNodes>
          <leafValues>
            1.0174468904733658e-01 -6.6309529542922974e-01</leafValues></_>
        <_>
          <internalNodes>
            0 -1 79 2.3525517899543047e-03</internalNodes>
          <leafValues>
            -7.0678669214248657e-01 9.2037752270698547e-02</leafValues></_>
        <_>
          <internalNodes>
            0 -1 40 1.2093896418809891e-01</internalNodes>
          <leafValues>
            -2.1080397069454193e-01 4.2966315150260925e-01</leafValues></_>
        <_>
          <internalNodes>
            0 -1 59 3.0791893601417542e-02</internalNodes>
          <leafValues>
            -2.8270307183265686e-01 2.9461365938186646e-01</leafValues></_>
        <_>
          <internalNodes>
            0 -1 92 4.3552063405513763e-02</internalNodes>
          <leafValues>
            1.1603991687297821e-01 -6.9135147333145142e-01</leafValues></_>
        <_>
          <internalNodes>
            0 -1 89 2.9041038826107979e-02</internalNodes>
          <leafValues>
            1.6510999202728271e-01 -4.4418016076087952e-01</leafValues></_>
        <_>
          <internalNodes>
            0 -1 106 3.6708086729049683e-02</internalNodes>
          <leafValues>
            2.4693126976490021e-01 -3.2065114378929138e-01</leafValues></_>
        <_>
          <internalNodes>
            0 -1 83 2.2208943963050842e-02</internalNodes>
          <leafValues>
            -7.3436683416366577e-01 1.0624019801616669e-01</leafValues></_></weakClassifiers></_>
    <!-- stage 10 -->
    <_>
      <maxWeakCount>18</maxWeakCount>
      <stageThreshold>-1.3188261985778809e+00</stageThreshold>
      <weakClassifiers>
        <_>
          <internalNodes>
            0 -1 73 2.9425118118524551e-02</internalNodes>
          <leafValues>
            2.2237017750740051e-01 -5.8793967962265015e-01</leafValues></_>
        <_>
          <internalNodes>
            0 -1 21 2.0227737724781036e-02</internalNodes>
          <leafValues>
            1.9018828868865967e-01 -4.7520589828491211e-01</leafValues></_>
        <_>
          <internalNodes>
            0 -1 16 2.5160156190395355e-02</internalNodes>
          <leafValues>
            -2.8689253330230713e-01 3.4559467434883118e-01</leafValues></_>
        <_>
          <internalNodes>
            0 -1 75 2.6070982217788696e-02</internalNodes>
          <leafValues>
            -4.5891010761260986e-01 2.3743756115436554e-01</leafValues></_>
        <_>
          <internalNodes>
            0 -1 90 3.1633198261260986e-02</internalNodes>
          <leafValues>
            -2.3062515258789062e-01 4.3339219689369202e-01</leafValues></_>
        <_>
          <internalNodes>
            0 -1 66 1.5000276267528534e-02</internalNodes>
          <leafValues>
            -3.7362393736839294e-01 2.1638937294483185e-01</leafValues></_>
        <_>
          <internalNodes>
            0 -1 43 1.3784820213913918e-02</internalNodes>
          <leafValues>
            2.3052617907524109e-01 -5.6049269437789917e-01</leafValues></_>
        <_>
          <internalNodes>
            0 -1 65 8.6079062893986702e-03</internalNodes>
          <leafValues>
            -5.4705965518951416e-01 1.8591351807117462e-01</leafValues></_>
        <_>
          <internalNodes>
            0 -1 78 2.8772071003913879e-02</internalNodes>
          <leafValues>
            9.8998740315437317e-02 -5.9424149990081787e-01</leafValues></_>
        <_>
          <internalNodes>
            0 -1 117 8.3063431084156036e-03</internalNodes>
          <leafValues>
            -7.0599007606506348e-01 9.5348648726940155e-02</leafValues></_>
        <_>
          <internalNodes>
            0 -1 1 1.2387230992317200e-02</internalNodes>
          <leafValues>
            -5.1159083843231201e-01 1.5450787544250488e-01</leafValues></_>
        <_>
          <internalNodes>
            0 -1 81 2.0130269229412079e-02</internalNodes>
          <leafValues>
            -9.3069273233413696e-01 6.9529242813587189e-02</leafValues></_>
        <_>
          <internalNodes>
            0 -1 62 2.8353556990623474e-02</internalNodes>
          <leafValues>
            -3.5817047953605652e-01 2.6873618364334106e-01</leafValues></_>
        <_>
          <internalNodes>
            0 -1 53 3.6845851689577103e-02</internalNodes>
          <leafValues>
            -2.3195874691009521e-01 3.7331730127334595e-01</leafValues></_>
        <_>
          <internalNodes>
            0 -1 109 2.3986183106899261e-02</internalNodes>
          <leafValues>
            -3.7934777140617371e-01 1.9969488680362701e-01</leafValues></_>
        <_>
          <internalNodes>
            0 -1 55 3.5185188055038452e-02</internalNodes>
          <leafValues>
            -4.1913849115371704e-01 2.0687772333621979e-01</leafValues></_>
        <_>
          <internalNodes>
            0 -1 4 2.5029113516211510e-02</internalNodes>
          <leafValues>
            -4.3191507458686829e-01 2.4767823517322540e-01</leafValues></_>
        <_>
          <internalNodes>
            0 -1 57 1.1402648687362671e-01</internalNodes>
          <leafValues>
            6.4708806574344635e-02 -9.0579402446746826e-01</leafValues></_></weakClassifiers></_>
    <!-- stage 11 -->
    <_>
      <maxWeakCount>15</maxWeakCount>
      <stageThreshold>-9.5210719108581543e-01</stageThreshold>
      <weakClassifiers>
        <_>
          <internalNodes>
            0 -1 94 2.2605476900935173e-02</internalNodes>
          <leafValues>
            -4.2384105920791626e-01 2.7469134330749512e-01</leafValues></_>
        <_>
          <internalNodes>
            0 -1 29 1.7522079870104790e-02</internalNodes>
          <leafValues>
            -4.1952723264694214e-01 2.5447338819503784e-01</leafValues></_>
        <_>
          <internalNodes>
            0 -1 57 3.5672847181558609e-02</internalNodes>
          <leafValues>
            -5.0787305831909180e-01 2.1507821977138519e-01</leafValues></_>
        <_>
          <internalNodes>
            0 -1 123 8.4051236510276794e-02</internalNodes>
          <leafValues>
            1.2435448914766312e-01 -8.3934795856475830e-01</leafValues></_>
        <_>
          <internalNodes>
            0 -1 32 3.8591902703046799e-02</internalNodes>
          <leafValues>
            -4.6991097927093506e-01 1.9473430514335632e-01</leafValues></_>
        <_>
          <internalNodes>
            0 -1 82 4.9529927782714367e-03</internalNodes>
          <leafValues>
            -5.8437740802764893e-01 1.4974939823150635e-01</leafValues></_>
        <_>
          <internalNodes>
            0 -1 38 1.7635341733694077e-02</internalNodes>
          <leafValues>
            1.1985144764184952e-01 -7.8419524431228638e-01</leafValues></_>
        <_>
          <internalNodes>
            0 -1 13 3.7072472274303436e-02</internalNodes>
          <leafValues>
            -2.4129118025302887e-01 4.2768803238868713e-01</leafValues></_>
        <_>
          <internalNodes>
            0 -1 16 2.6868540793657303e-02</internalNodes>
          <leafValues>
            -3.0270087718963623e-01 3.5404732823371887e-01</leafValues></_>
        <_>
          <internalNodes>
            0 -1 88 3.2475098967552185e-02</internalNodes>
          <leafValues>
            1.3231375813484192e-01 -6.4077371358871460e-01</leafValues></_>
        <_>
          <internalNodes>
            0 -1 18 3.6822061985731125e-02</internalNodes>
          <leafValues>
            -2.7133882045745850e-01 3.6321181058883667e-01</leafValues></_>
        <_>
          <internalNodes>
            0 -1 33 1.9699275493621826e-02</internalNodes>
          <leafValues>
            -3.8349902629852295e-01 2.9521617293357849e-01</leafValues></_>
        <_>
          <internalNodes>
            0 -1 7 1.0089376941323280e-02</internalNodes>
          <leafValues>
            -4.1667494177818298e-01 2.0728163421154022e-01</leafValues></_>
        <_>
          <internalNodes>
            0 -1 111 1.4205789193511009e-02</internalNodes>
          <leafValues>
            1.4044427871704102e-01 -6.2498480081558228e-01</leafValues></_>
        <_>
          <internalNodes>
            0 -1 122 7.4718180112540722e-03</internalNodes>
          <leafValues>
            -8.5416162014007568e-01 7.3378421366214752e-02</leafValues></_></weakClassifiers></_>
    <!-- stage 12 -->
    <_>
      <maxWeakCount>14</maxWeakCount>
      <stageThreshold>-1.0992531776428223e+00</stageThreshold>
      <weakClassifiers>
        <_>
          <internalNodes>
            0 -1 31 6.3709199428558350e-02</internalNodes>
          <leafValues>
            2.0865139365196228e-01 -6.9512194395065308e-01</leafValues></_>
        <_>
          <internalNodes>
            0 -1 84 3.1528279185295105e-02</internalNodes>
          <leafValues>
            -7.7936369180679321e-01 1.2248522043228149e-01</leafValues></_>
        <_>
          <internalNodes>
            0 -1 62 1.4523724094033241e-02</internalNodes>
          <leafValues>
            -6.7028510570526123e-01 1.3301596045494080e-01</leafValues></_>
        <_>
          <internalNodes>
            0 -1 14 1.0098453611135483e-02</internalNodes>
          <leafValues>
            -7.2303187847137451e-01 1.4838498830795288e-01</leafValues></_>
        <_>
          <internalNodes>
            0 -1 18 2.2120464593172073e-02</internalNodes>
          <leafValues>
            -5.0170409679412842e-01 2.4770483374595642e-01</leafValues></_>
        <_>
          <internalNodes>
            0 -1 78 2.1991465240716934e-02</internalNodes>
          <leafValues>
            2.0435951650142670e-01 -4.9340730905532837e-01</leafValues></_>
        <_>
          <internalNodes>
            0 -1 114 6.8972171284258366e-03</internalNodes>
          <leafValues>
            3.0622386932373047e-01 -3.0117726325988770e-01</leafValues></_>
        <_>
          <internalNodes>
            0 -1 119 7.9944357275962830e-02</internalNodes>
          <leafValues>
            1.1798844486474991e-01 -7.2820901870727539e-01</leafValues></_>
        <_>
          <internalNodes>
            0 -1 16 3.9352118968963623e-02</internalNodes>
          <leafValues>
            -1.5876300632953644e-01 6.1096715927124023e-01</leafValues></_>
        <_>
          <internalNodes>
            0 -1 13 3.8965079933404922e-02</internalNodes>
          <leafValues>
            -2.2317843139171600e-01 4.3404009938240051e-01</leafValues></_>
        <_>
          <internalNodes>
            0 -1 81 4.7373913228511810e-02</internalNodes>
          <leafValues>
            -5.6329566240310669e-01 2.2175291180610657e-01</leafValues></_>
        <_>
          <internalNodes>
            0 -1 79 5.5208820849657059e-03</internalNodes>
          <leafValues>
            -6.0779297351837158e-01 1.6784948110580444e-01</leafValues></_>
        <_>
          <internalNodes>
            0 -1 57 4.4462330639362335e-02</internalNodes>
          <leafValues>
            -3.6044663190841675e-01 2.6799917221069336e-01</leafValues></_>
        <_>
          <internalNodes>
            0 -1 59 4.7890800982713699e-02</internalNodes>
          <leafValues>
            -1.8070475757122040e-01 5.2857005596160889e-01</leafValues></_></weakClassifiers></_>
    <!-- stage 13 -->
    <_>
      <maxWeakCount>15</maxWeakCount>
      <stageThreshold>-9.1463625431060791e-01</stageThreshold>
      <weakClassifiers>
        <_>
          <internalNodes>
            0 -1 40 1.4849036931991577e-01</internalNodes>
          <leafValues>
            -1.1633986979722977e-01 7.5135135650634766e-01</leafValues></_>
        <_>
          <internalNodes>
            0 -1 115 4.2512605432420969e-04</internalNodes>
          <leafValues>
            7.8341269493103027e-01 -8.5227988660335541e-02</leafValues></_>
        <_>
          <internalNodes>
            0 -1 62 1.5887469053268433e-02</internalNodes>
          <leafValues>
            -5.9636968374252319e-01 1.6014917194843292e-01</leafValues></_>
        <_>
          <internalNodes>
            0 -1 60 2.5819554924964905e-02</internalNodes>
          <leafValues>
            -3.6848995089530945e-01 2.4625277519226074e-01</leafValues></_>
        <_>
          <internalNodes>
            0 -1 73 3.4478295594453812e-02</internalNodes>
          <leafValues>
            1.1063932627439499e-01 -6.7100352048873901e-01</leafValues></_>
        <_>
          <internalNodes>
            0 -1 121 7.3297279886901379e-03</internalNodes>
          <leafValues>
            -5.5254143476486206e-01 1.1579641699790955e-01</leafValues></_>
        <_>
          <internalNodes>
            0 -1 30 3.7871319800615311e-02</internalNodes>
          <leafValues>
            9.6611179411411285e-02 -7.7575922012329102e-01</leafValues></_>
        <_>
          <internalNodes>
            0 -1 45 2.7157913893461227e-02</internalNodes>
          <leafValues>
            1.3971729576587677e-01 -5.6745564937591553e-01</leafValues></_>
        <_>
          <internalNodes>
            0 -1 10 1.2228914536535740e-02</internalNodes>
          <leafValues>
            -5.0067108869552612e-01 1.4125941693782806e-01</leafValues></_>
        <_>
          <internalNodes>
            0 -1 108 1.2578967958688736e-02</internalNodes>
          <leafValues>
            -6.9783604145050049e-01 1.1583564430475235e-01</leafValues></_>
        <_>
          <internalNodes>
            0 -1 49 3.7619251757860184e-02</internalNodes>
          <leafValues>
            1.9807791709899902e-01 -3.7671354413032532e-01</leafValues></_>
        <_>
          <internalNodes>
            0 -1 37 1.0590439662337303e-02</internalNodes>
          <leafValues>
            2.0225705206394196e-01 -4.5071282982826233e-01</leafValues></_>
        <_>
          <internalNodes>
            0 -1 82 8.1185409799218178e-03</internalNodes>
          <leafValues>
            -5.4412978887557983e-01 1.2778380513191223e-01</leafValues></_>
        <_>
          <internalNodes>
            0 -1 71 4.4675201177597046e-02</internalNodes>
          <leafValues>
            9.3952022492885590e-02 -8.3928072452545166e-01</leafValues></_>
        <_>
          <internalNodes>
            0 -1 31 4.5881099998950958e-02</internalNodes>
          <leafValues>
            1.6274641454219818e-01 -4.0179392695426941e-01</leafValues></_></weakClassifiers></_>
    <!-- stage 14 -->
    <_>
      <maxWeakCount>21</maxWeakCount>
      <stageThreshold>-9.4009178876876831e-01</stageThreshold>
      <weakClassifiers>
        <_>
          <internalNodes>
            0 -1 113 1.0605606436729431e-01</internalNodes>
          <leafValues>
            -2.3529411852359772e-01 3.8636362552642822e-01</leafValues></_>
        <_>
          <internalNodes>
            0 -1 37 1.0636723600327969e-03</internalNodes>
          <leafValues>
            5.8342415094375610e-01 -1.2004469335079193e-01</leafValues></_>
        <_>
          <internalNodes>
            0 -1 79 5.6749610230326653e-03</internalNodes>
          <leafValues>
            -5.6253206729888916e-01 1.1027520895004272e-01</leafValues></_>
        <_>
          <internalNodes>
            0 -1 97 1.2607159093022346e-02</internalNodes>
          <leafValues>
            -7.5693917274475098e-01 1.0288546234369278e-01</leafValues></_>
        <_>
          <internalNodes>
            0 -1 23 1.0668396018445492e-02</internalNodes>
          <leafValues>
            2.1447683870792389e-01 -3.6643752455711365e-01</leafValues></_>
        <_>
          <internalNodes>
            0 -1 47 2.9940385371446609e-02</internalNodes>
          <leafValues>
            1.6850769519805908e-01 -5.8575719594955444e-01</leafValues></_>
        <_>
          <internalNodes>
            0 -1 26 2.5553731247782707e-02</internalNodes>
          <leafValues>
            -3.4037676453590393e-01 2.3423370718955994e-01</leafValues></_>
        <_>
          <internalNodes>
            0 -1 59 3.6502890288829803e-02</internalNodes>
          <leafValues>
            -2.3925174772739410e-01 3.5423272848129272e-01</leafValues></_>
        <_>
          <internalNodes>
            0 -1 1 3.6761075258255005e-02</internalNodes>
          <leafValues>
            -2.3476620018482208e-01 4.2520835995674133e-01</leafValues></_>
        <_>
          <internalNodes>
            0 -1 107 2.9167644679546356e-02</internalNodes>
          <leafValues>
            -2.5132751464843750e-01 3.2242658734321594e-01</leafValues></_>
        <_>
          <internalNodes>
            0 -1 36 8.0732285976409912e-02</internalNodes>
          <leafValues>
            9.6165522933006287e-02 -8.0969923734664917e-01</leafValues></_>
        <_>
          <internalNodes>
            0 -1 84 3.1528279185295105e-02</internalNodes>
          <leafValues>
            -6.9369035959243774e-01 8.5873380303382874e-02</leafValues></_>
        <_>
          <internalNodes>
            0 -1 86 9.5811281353235245e-03</internalNodes>
          <leafValues>
            -4.5169955492019653e-01 1.5132679045200348e-01</leafValues></_>
        <_>
          <internalNodes>
            0 -1 16 3.2326012849807739e-02</internalNodes>
          <leafValues>
            -2.0711876451969147e-01 4.2317348718643188e-01</leafValues></_>
        <_>
          <internalNodes>
            0 -1 95 2.7069516479969025e-02</internalNodes>
          <leafValues>
            -1.7907974123954773e-01 4.3262758851051331e-01</leafValues></_>
        <_>
          <internalNodes>
            0 -1 111 1.4666950330138206e-02</internalNodes>
          <leafValues>
            1.7690467834472656e-01 -5.3671288490295410e-01</leafValues></_>
        <_>
          <internalNodes>
            0 -1 61 1.5269191935658455e-02</internalNodes>
          <leafValues>
            -5.8453375101089478e-01 9.1174826025962830e-02</leafValues></_>
        <_>
          <internalNodes>
            0 -1 12 3.0919846147298813e-02</internalNodes>
          <leafValues>
            -2.9033088684082031e-01 2.4755002558231354e-01</leafValues></_>
        <_>
          <internalNodes>
            0 -1 27 4.1325196623802185e-02</internalNodes>
          <leafValues>
            -2.2711317241191864e-01 3.2262811064720154e-01</leafValues></_>
        <_>
          <internalNodes>
            0 -1 74 2.2180452942848206e-02</internalNodes>
          <leafValues>
            1.2971848249435425e-01 -4.6823802590370178e-01</leafValues></_>
        <_>
          <internalNodes>
            0 -1 104 3.7605106830596924e-02</internalNodes>
          <leafValues>
            -1.5758036077022552e-01 4.9027252197265625e-01</leafValues></_></weakClassifiers></_>
    <!-- stage 15 -->
    <_>
      <maxWeakCount>21</maxWeakCount>
      <stageThreshold>-1.0107072591781616e+00</stageThreshold>
      <weakClassifiers>
        <_>
          <internalNodes>
            0 -1 111 6.8377633579075336e-03</internalNodes>
          <leafValues>
            3.1999999284744263e-01 -3.1499999761581421e-01</leafValues></_>
        <_>
          <internalNodes>
            0 -1 118 1.9739687442779541e-02</internalNodes>
          <leafValues>
            -5.6551724672317505e-01 1.3698884844779968e-01</leafValues></_>
        <_>
          <internalNodes>
            0 -1 121 1.0791281238198280e-02</internalNodes>
          <leafValues>
            -4.1005733609199524e-01 2.2966454923152924e-01</leafValues></_>
        <_>
          <internalNodes>
            0 -1 103 4.0110005065798759e-03</internalNodes>
          <leafValues>
            4.5425418019294739e-01 -2.0110100507736206e-01</leafValues></_>
        <_>
          <internalNodes>
            0 -1 77 4.4202480465173721e-02</internalNodes>
          <leafValues>
            6.5141327679157257e-02 -8.4157031774520874e-01</leafValues></_>
        <_>
          <internalNodes>
            0 -1 62 2.9103599488735199e-02</internalNodes>
          <leafValues>
            -3.3809295296669006e-01 2.8333735466003418e-01</leafValues></_>
        <_>
          <internalNodes>
            0 -1 8 5.0534266978502274e-02</internalNodes>
          <leafValues>
            1.5202018618583679e-01 -7.6543301343917847e-01</leafValues></_>
        <_>
          <internalNodes>
            0 -1 11 1.5118774026632309e-02</internalNodes>
          <leafValues>
            -3.2898908853530884e-01 2.6179385185241699e-01</leafValues></_>
        <_>
          <internalNodes>
            0 -1 17 2.0537178963422775e-02</internalNodes>
          <leafValues>
            -4.0399530529975891e-01 1.7735859751701355e-01</leafValues></_>
        <_>
          <internalNodes>
            0 -1 13 2.4469956755638123e-02</internalNodes>
          <leafValues>
            -3.9190036058425903e-01 2.0070725679397583e-01</leafValues></_>
        <_>
          <internalNodes>
            0 -1 81 6.3972890377044678e-02</internalNodes>
          <leafValues>
            -4.4542986154556274e-01 2.4090942740440369e-01</leafValues></_>
        <_>
          <internalNodes>
            0 -1 106 7.3675051331520081e-02</internalNodes>
          <leafValues>
            9.1064117848873138e-02 -8.8419038057327271e-01</leafValues></_>
        <_>
          <internalNodes>
            0 -1 68 2.4449050426483154e-02</internalNodes>
          <leafValues>
            -4.9592325091362000e-01 1.5328763425350189e-01</leafValues></_>
        <_>
          <internalNodes>
            0 -1 105 2.1210420876741409e-02</internalNodes>
          <leafValues>
            -3.4279814362525940e-01 2.5706052780151367e-01</leafValues></_>
        <_>
          <internalNodes>
            0 -1 108 3.8289263844490051e-02</internalNodes>
          <leafValues>
            -2.1735806763172150e-01 3.9291223883628845e-01</leafValues></_>
        <_>
          <internalNodes>
            0 -1 59 2.3481877520680428e-02</internalNodes>
          <leafValues>
            -3.2385873794555664e-01 2.4134829640388489e-01</leafValues></_>
        <_>
          <internalNodes>
            0 -1 22 2.7748420834541321e-02</internalNodes>
          <leafValues>
            1.1574368178844452e-01 -5.9069705009460449e-01</leafValues></_>
        <_>
          <internalNodes>
            0 -1 16 3.3452462404966354e-02</internalNodes>
          <leafValues>
            -1.9884087145328522e-01 3.9347815513610840e-01</leafValues></_>
        <_>
          <internalNodes>
            0 -1 9 7.6200715266168118e-03</internalNodes>
          <leafValues>
            -5.1225411891937256e-01 1.8720769882202148e-01</leafValues></_>
        <_>
          <internalNodes>
            0 -1 76 3.4683510661125183e-02</internalNodes>
          <leafValues>
            -5.0327962636947632e-01 1.8559518456459045e-01</leafValues></_>
        <_>
          <internalNodes>
            0 -1 6 3.9360556751489639e-02</internalNodes>
          <leafValues>
            9.7872115671634674e-02 -7.8472840785980225e-01</leafValues></_></weakClassifiers></_>
    <!-- stage 16 -->
    <_>
      <maxWeakCount>17</maxWeakCount>
      <stageThreshold>-1.0711430311203003e+00</stageThreshold>
      <weakClassifiers>
        <_>
          <internalNodes>
            0 -1 37 1.0901163332164288e-02</internalNodes>
          <leafValues>
            2.2752809524536133e-01 -4.7058823704719543e-01</leafValues></_>
        <_>
          <internalNodes>
            0 -1 65 1.4689406380057335e-02</internalNodes>
          <leafValues>
            -3.2830932736396790e-01 3.1812143325805664e-01</leafValues></_>
        <_>
          <internalNodes>
            0 -1 110 4.6365886926651001e-02</internalNodes>
          <leafValues>
            -1.2043733149766922e-01 7.5876760482788086e-01</leafValues></_>
        <_>
          <internalNodes>
            0 -1 91 4.9850977957248688e-03</internalNodes>
          <leafValues>
            -5.1854360103607178e-01 1.9706834852695465e-01</leafValues></_>
        <_>
          <internalNodes>
            0 -1 115 8.6197135969996452e-03</internalNodes>
          <leafValues>
            2.2142122685909271e-01 -4.6667903661727905e-01</leafValues></_>
        <_>
          <internalNodes>
            0 -1 54 4.9472756683826447e-02</internalNodes>
          <leafValues>
            -2.4300768971443176e-01 4.5360890030860901e-01</leafValues></_>
        <_>
          <internalNodes>
            0 -1 34 2.6710724458098412e-02</internalNodes>
          <leafValues>
            -2.5489535927772522e-01 5.1609063148498535e-01</leafValues></_>
        <_>
          <internalNodes>
            0 -1 109 3.0691280961036682e-02</internalNodes>
          <leafValues>
            -3.3550027012825012e-01 3.1003779172897339e-01</leafValues></_>
        <_>
          <internalNodes>
            0 -1 123 7.6464802026748657e-02</internalNodes>
          <leafValues>
            1.1077485978603363e-01 -8.8606905937194824e-01</leafValues></_>
        <_>
          <internalNodes>
            0 -1 50 2.0094880834221840e-02</internalNodes>
          <leafValues>
            -3.3937257528305054e-01 4.2885944247245789e-01</leafValues></_>
        <_>
          <internalNodes>
            0 -1 4 3.2467037439346313e-02</internalNodes>
          <leafValues>
            -3.1534159183502197e-01 4.1942912340164185e-01</leafValues></_>
        <_>
          <internalNodes>
            0 -1 87 3.6858607083559036e-02</internalNodes>
          <leafValues>
            1.4117920398712158e-01 -6.3628911972045898e-01</leafValues></_>
        <_>
          <internalNodes>
            0 -1 25 6.6308066248893738e-02</internalNodes>
          <leafValues>
            9.5877632498741150e-02 -9.1127300262451172e-01</leafValues></_>
        <_>
          <internalNodes>
            0 -1 12 3.2001271843910217e-02</internalNodes>
          <leafValues>
            -3.5789930820465088e-01 2.8198888897895813e-01</leafValues></_>
        <_>
          <internalNodes>
            0 -1 42 6.5254670334979892e-04</internalNodes>
          <leafValues>
            1. -9.6228972077369690e-02</leafValues></_>
        <_>
          <internalNodes>
            0 -1 58 1.2066723778843880e-02</internalNodes>
          <leafValues>
            -5.0405079126358032e-01 2.1478392183780670e-01</leafValues></_>
        <_>
          <internalNodes>
            0 -1 33 2.6770783588290215e-02</internalNodes>
          <leafValues>
            -2.5629213452339172e-01 3.9280328154563904e-01</leafValues></_></weakClassifiers></_>
    <!-- stage 17 -->
    <_>
      <maxWeakCount>11</maxWeakCount>
      <stageThreshold>-1.2881765365600586e+00</stageThreshold>
      <weakClassifiers>
        <_>
          <internalNodes>
            0 -1 99 1.0589927434921265e-02</internalNodes>
          <leafValues>
            1. -1.1662530899047852e-01</leafValues></_>
        <_>
          <internalNodes>
            0 -1 3 5.6732550263404846e-02</internalNodes>
          <leafValues>
            2.7317348122596741e-01 -6.6595596075057983e-01</leafValues></_>
        <_>
          <internalNodes>
            0 -1 113 1.4227119088172913e-01</internalNodes>
          <leafValues>
            -2.5851035118103027e-01 7.4047589302062988e-01</leafValues></_>
        <_>
          <internalNodes>
            0 -1 104 1.2883020564913750e-02</internalNodes>
          <leafValues>
            -6.4055830240249634e-01 2.5100725889205933e-01</leafValues></_>
        <_>
          <internalNodes>
            0 -1 21 9.8822042346000671e-03</internalNodes>
          <leafValues>
            6.5260708332061768e-01 -2.3092742264270782e-01</leafValues></_>
        <_>
          <internalNodes>
            0 -1 120 2.8637638315558434e-02</internalNodes>
          <leafValues>
            2.8250139951705933e-01 -5.2732801437377930e-01</leafValues></_>
        <_>
          <internalNodes>
            0 -1 59 2.3394947871565819e-02</internalNodes>
          <leafValues>
            -4.7396066784858704e-01 4.2019405961036682e-01</leafValues></_>
        <_>
          <internalNodes>
            0 -1 71 1.8399408087134361e-02</internalNodes>
          <leafValues>
            4.3473106622695923e-01 -3.7393176555633545e-01</leafValues></_>
        <_>
          <internalNodes>
            0 -1 31 3.3368319272994995e-02</internalNodes>
          <leafValues>
            5.3628891706466675e-01 -4.0078988671302795e-01</leafValues></_>
        <_>
          <internalNodes>
            0 -1 1 4.4807277619838715e-02</internalNodes>
          <leafValues>
            -2.0455130934715271e-01 7.0795536041259766e-01</leafValues></_>
        <_>
          <internalNodes>
            0 -1 43 1.1525326408445835e-03</internalNodes>
          <leafValues>
            1. -1.6281141340732574e-01</leafValues></_></weakClassifiers></_>
    <!-- stage 18 -->
    <_>
      <maxWeakCount>9</maxWeakCount>
      <stageThreshold>-8.7976163625717163e-01</stageThreshold>
      <weakClassifiers>
        <_>
          <internalNodes>
            0 -1 100 3.3866345882415771e-02</internalNodes>
          <leafValues>
            -2.3966942727565765e-01 1.</leafValues></_>
        <_>
          <internalNodes>
            0 -1 99 1.3296819292008877e-02</internalNodes>
          <leafValues>
            1. -1.6563710570335388e-01</leafValues></_>
        <_>
          <internalNodes>
            0 -1 0 3.2874733209609985e-02</internalNodes>
          <leafValues>
            -1.7610856890678406e-01 1.</leafValues></_>
        <_>
          <internalNodes>
            0 -1 48 2.7927357703447342e-02</internalNodes>
          <leafValues>
            5.9603196382522583e-01 -4.2949089407920837e-01</leafValues></_>
        <_>
          <internalNodes>
            0 -1 36 1.8019061535596848e-02</internalNodes>
          <leafValues>
            -5.3402274847030640e-01 5.2391296625137329e-01</leafValues></_>
        <_>
          <internalNodes>
            0 -1 64 1.2828419916331768e-02</internalNodes>
          <leafValues>
            -5.9896248579025269e-01 4.6796482801437378e-01</leafValues></_>
        <_>
          <internalNodes>
            0 -1 59 2.1942703053355217e-02</internalNodes>
          <leafValues>
            -5.8009630441665649e-01 4.8446553945541382e-01</leafValues></_>
        <_>
          <internalNodes>
            0 -1 51 3.9007879793643951e-02</internalNodes>
          <leafValues>
            3.5844612121582031e-01 -7.8186827898025513e-01</leafValues></_>
        <_>
          <internalNodes>
            0 -1 11 1.3234065845608711e-02</internalNodes>
          <leafValues>
            -6.0667037963867188e-01 6.1798089742660522e-01</leafValues></_></weakClassifiers></_>
    <!-- stage 19 -->
    <_>
      <maxWeakCount>3</maxWeakCount>
      <stageThreshold>-4.1946268081665039e-01</stageThreshold>
      <weakClassifiers>
        <_>
          <internalNodes>
            0 -1 70 9.4287432730197906e-03</internalNodes>
          <leafValues>
            -6.0714286565780640e-01 1.</leafValues></_>
        <_>
          <internalNodes>
            0 -1 63 2.6902399957180023e-02</internalNodes>
          <leafValues>
            -7.2537529468536377e-01 7.2991865873336792e-01</leafValues></_>
        <_>
          <internalNodes>
            0 -1 120 2.0633015781641006e-02</internalNodes>
          <leafValues>
            1. -5.4223853349685669e-01</leafValues></_></weakClassifiers></_></stages>
  <features>
    <_>
      <rect>
        0 0 8 8 4</rect></_>
    <_>
      <rect>
        0 0 8 8 8</rect></_>
    <_>
      <rect>
        0 0 8 8 17</rect></_>
    <_>
      <rect>
        0 0 8 8 18</rect></_>
    <_>
      <rect>
        0 0 8 8 19</rect></_>
    <_>
      <rect>
        0 0 8 8 20</rect></_>
    <_>
      <rect>
        0 0 8 8 25</rect></_>
    <_>
      <rect>
        0 0 8 8 28</rect></_>
    <_>
      <rect>
        0 4 8 8 0</rect></_>
    <_>
      <rect>
        0 4 8 8 9</rect></_>
    <_>
      <rect>
        0 4 8 8 10</rect></_>
    <_>
      <rect>
        0 4 8 8 17</rect></_>
    <_>
      <rect>
        0 4 8 8 18</rect></_>
    <_>
      <rect>
        0 4 8 8 19</rect></_>
    <_>
      <rect>
        0 4 8 8 20</rect></_>
    <_>
      <rect>
        0 4 8 8 22</rect></_>
    <_>
      <rect>
        0 4 8 8 24</rect></_>
    <_>
      <rect>
        0 4 8 8 25</rect></_>
    <_>
      <rect>
        0 4 8 8 26</rect></_>
    <_>
      <rect>
        0 4 8 8 27</rect></_>
    <_>
      <rect>
        0 4 8 8 28</rect></_>
    <_>
      <rect>
        0 4 8 8 29</rect></_>
    <_>
      <rect>
        0 4 8 8 32</rect></_>
    <_>
      <rect>
        0 4 8 8 34</rect></_>
    <_>
      <rect>
        0 4 8 8 35</rect></_>
    <_>
      <rect>
        0 8 8 8 0</rect></_>
    <_>
      <rect>
        0 8 8 8 2</rect></_>
    <_>
      <rect>
        0 8 8 8 3</rect></_>
    <_>
      <rect>
        0 8 8 8 7</rect></_>
    <_>
      <rect>
        0 8 8 8 18</rect></_>
    <_>
      <rect>
        0 8 8 8 20</rect></_>
    <_>
      <rect>
        0 8 8 8 21</rect></_>
    <_>
      <rect>
        0 8 8 8 22</rect></_>
    <_>
      <rect>
        0 8 8 8 23</rect></_>
    <_>
      <rect>
        0 8 8 8 24</rect></_>
    <_>
      <rect>
        0 8 8 8 25</rect></_>
    <_>
      <rect>
        0 8 8 8 26</rect></_>
    <_>
      <rect>
        0 8 8 8 27</rect></_>
    <_>
      <rect>
        0 8 8 8 28</rect></_>
    <_>
      <rect>
        0 8 8 8 29</rect></_>
    <_>
      <rect>
        0 8 8 8 31</rect></_>
    <_>
      <rect>
        0 8 8 8 32</rect></_>
    <_>
      <rect>
        0 8 8 8 33</rect></_>
    <_>
      <rect>
        0 8 8 8 34</rect></_>
    <_>
      <rect>
        4 0 8 8 5</rect></_>
    <_>
      <rect>
        4 0 8 8 6</rect></_>
    <_>
      <rect>
        4 0 8 8 8</rect></_>
    <_>
      <rect>
        4 0 8 8 10</rect></_>
    <_>
      <rect>
        4 0 8 8 12</rect></_>
    <_>
      <rect>
        4 0 8 8 13</rect></_>
    <_>
      <rect>
        4 0 8 8 14</rect></_>
    <_>
      <rect>
        4 0 8 8 18</rect></_>
    <_>
      <rect>
        4 0 8 8 19</rect></_>
    <_>
      <rect>
        4 0 8 8 20</rect></_>
    <_>
      <rect>
        4 0 8 8 21</rect></_>
    <_>
      <rect>
        4 0 8 8 22</rect></_>
    <_>
      <rect>
        4 0 8 8 29</rect></_>
    <_>
      <rect>
        4 0 8 8 31</rect></_>
    <_>
      <rect>
        4 4 8 8 0</rect></_>
    <_>
      <rect>
        4 4 8 8 1</rect></_>
    <_>
      <rect>
        4 4 8 8 2</rect></_>
    <_>
      <rect>
        4 4 8 8 14</rect></_>
    <_>
      <rect>
        4 4 8 8 15</rect></_>
    <_>
      <rect>
        4 4 8 8 22</rect></_>
    <_>
      <rect>
        4 4 8 8 23</rect></_>
    <_>
      <rect>
        4 4 8 8 25</rect></_>
    <_>
      <rect>
        4 4 8 8 27</rect></_>
    <_>
      <rect>
        4 4 8 8 29</rect></_>
    <_>
      <rect>
        4 4 8 8 30</rect></_>
    <_>
      <rect>
        4 4 8 8 31</rect></_>
    <_>
      <rect>
        4 4 8 8 33</rect></_>
    <_>
      <rect>
        4 8 8 8 0</rect></_>
    <_>
      <rect>
        4 8 8 8 3</rect></_>
    <_>
      <rect>
        4 8 8 8 8</rect></_>
    <_>
      <rect>
        4 8 8 8 9</rect></_>
    <_>
      <rect>
        4 8 8 8 12</rect></_>
    <_>
      <rect>
        4 8 8 8 13</rect></_>
    <_>
      <rect>
        4 8 8 8 16</rect></_>
    <_>
      <rect>
        4 8 8 8 17</rect></_>
    <_>
      <rect>
        4 8 8 8 18</rect></_>
    <_>
      <rect>
        4 8 8 8 20</rect></_>
    <_>
      <rect>
        4 8 8 8 22</rect></_>
    <_>
      <rect>
        4 8 8 8 27</rect></_>
    <_>
      <rect>
        4 8 8 8 30</rect></_>
    <_>
      <rect>
        4 8 8 8 31</rect></_>
    <_>
      <rect>
        4 8 8 8 32</rect></_>
    <_>
      <rect>
        4 8 8 8 34</rect></_>
    <_>
      <rect>
        8 0 8 8 6</rect></_>
    <_>
      <rect>
        8 0 8 8 11</rect></_>
    <_>
      <rect>
        8 0 8 8 15</rect></_>
    <_>
      <rect>
        8 0 8 8 17</rect></_>
    <_>
      <rect>
        8 0 8 8 26</rect></_>
    <_>
      <rect>
        8 0 8 8 27</rect></_>
    <_>
      <rect>
        8 0 8 8 32</rect></_>
    <_>
      <rect>
        8 0 8 8 33</rect></_>
    <_>
      <rect>
        8 4 8 8 0</rect></_>
    <_>
      <rect>
        8 4 8 8 1</rect></_>
    <_>
      <rect>
        8 4 8 8 3</rect></_>
    <_>
      <rect>
        8 4 8 8 8</rect></_>
    <_>
      <rect>
        8 4 8 8 11</rect></_>
    <_>
      <rect>
        8 4 8 8 14</rect></_>
    <_>
      <rect>
        8 4 8 8 18</rect></_>
    <_>
      <rect>
        8 4 8 8 19</rect></_>
    <_>
      <rect>
        8 4 8 8 24</rect></_>
    <_>
      <rect>
        8 4 8 8 27</rect></_>
    <_>
      <rect>
        8 4 8 8 28</rect></_>
    <_>
      <rect>
        8 4 8 8 30</rect></_>
    <_>
      <rect>
        8 4 8 8 33</rect></_>
    <_>
      <rect>
        8 4 8 8 34</rect></_>
    <_>
      <rect>
        8 4 8 8 35</rect></_>
    <_>
      <rect>
        8 8 8 8 14</rect></_>
    <_>
      <rect>
        8 8 8 8 18</rect></_>
    <_>
      <rect>
        8 8 8 8 19</rect></_>
    <_>
      <rect>
        8 8 8 8 22</rect></_>
    <_>
      <rect>
        8 8 8 8 24</rect></_>
    <_>
      <rect>
        8 8 8 8 26</rect></_>
    <_>
      <rect>
        8 8 8 8 28</rect></_>
    <_>
      <rect>
        8 8 8 8 29</rect></_>
    <_>
      <rect>
        8 8 8 8 30</rect></_>
    <_>
      <rect>
        8 8 8 8 31</rect></_>
    <_>
      <rect>
        8 8 8 8 32</rect></_>
    <_>
      <rect>
        8 8 8 8 33</rect></_>
    <_>
      <rect>
        8 8 8 8 34</rect></_>
    <_>
      <rect>
        8 8 8 8 35</rect></_></features></cascade>
</opencv_storage>
