<?xml version="1.0"?>
<opencv_storage>
<cascade>
  <stageType>BOOST</stageType>
  <featureType>LBP</featureType>
  <height>24</height>
  <width>24</width>
  <stageParams>
    <boostType>GAB</boostType>
    <minHitRate>9.9500000476837158e-01</minHitRate>
    <maxFalseAlarm>5.0000000000000000e-01</maxFalseAlarm>
    <weightTrimRate>9.4999999999999996e-01</weightTrimRate>
    <maxDepth>1</maxDepth>
    <maxWeakCount>100</maxWeakCount></stageParams>
  <featureParams>
    <maxCatCount>256</maxCatCount>
    <featSize>1</featSize></featureParams>
  <stageNum>20</stageNum>
  <stages>
    <!-- stage 0 -->
    <_>
      <maxWeakCount>2</maxWeakCount>
      <stageThreshold>-1.5511430799961090e-01</stageThreshold>
      <weakClassifiers>
        <_>
          <internalNodes>
            0 -1 14 -145229345 -787279485 -1073626821 1597706376
            1879171979 1526761644 335725231 1003167914</internalNodes>
          <leafValues>
            -8.0188679695129395e-01 7.4144488573074341e-01</leafValues></_>
        <_>
          <internalNodes>
            0 -1 6 -4490925 -128904951 285212929 -786980061 402796805
            1812021401 74337 1941427839</internalNodes>
          <leafValues>
            -7.7568483352661133e-01 6.4677250385284424e-01</leafValues></_></weakClassifiers></_>
    <!-- stage 1 -->
    <_>
      <maxWeakCount>2</maxWeakCount>
      <stageThreshold>-1.9983302056789398e-01</stageThreshold>
      <weakClassifiers>
        <_>
          <internalNodes>
            0 -1 17 2030557695 1427742832 -2126446501 353833088
            -930952769 1829740762 167938201 730570942</internalNodes>
          <leafValues>
            -7.8217822313308716e-01 6.7032968997955322e-01</leafValues></_>
        <_>
          <internalNodes>
            0 -1 42 345756991 428982405 134287387 322289985 -1602090565
            1577126018 -2113365749 982960827</internalNodes>
          <leafValues>
            -8.4937077760696411e-01 5.8234518766403198e-01</leafValues></_></weakClassifiers></_>
    <!-- stage 2 -->
    <_>
      <maxWeakCount>2</maxWeakCount>
      <stageThreshold>-2.3369549214839935e-01</stageThreshold>
      <weakClassifiers>
        <_>
          <internalNodes>
            0 -1 41 -250349217 -1325332979 268501065 -520007667
            1552544922 -201161717 -1878919031 641247</internalNodes>
          <leafValues>
            -8.1671160459518433e-01 6.0967183113098145e-01</leafValues></_>
        <_>
          <internalNodes>
            0 -1 3 -1056517153 -648790005 268501053 -721403883
            -1877263693 -1698660351 -1054768163 1967220263</internalNodes>
          <leafValues>
            -8.2078546285629272e-01 5.8301609754562378e-01</leafValues></_></weakClassifiers></_>
    <!-- stage 3 -->
    <_>
      <maxWeakCount>4</maxWeakCount>
      <stageThreshold>-1.3633071184158325e+00</stageThreshold>
      <weakClassifiers>
        <_>
          <internalNodes>
            0 -1 13 1497593303 -653172453 880808057 1905792083 268978921
            151650482 2085098747 2072979950</internalNodes>
          <leafValues>
            -7.7023500204086304e-01 6.0846561193466187e-01</leafValues></_>
        <_>
          <internalNodes>
            0 -1 59 -804267819 1363185925 50528520 -258650109
            -2143071020 2029652360 1074282504 -923035121</internalNodes>
          <leafValues>
            -6.3683468103408813e-01 6.6746568679809570e-01</leafValues></_>
        <_>
          <internalNodes>
            0 -1 19 -527377 -201329670 -134217756 2012214074 -201329670
            -101378 -134480914 -201662070</internalNodes>
          <leafValues>
            -6.3304847478866577e-01 6.9982361793518066e-01</leafValues></_>
        <_>
          <internalNodes>
            0 -1 21 -1052259826 -901472239 1090600962 1342657033 9158931
            141051977 276932825 -72899893</internalNodes>
          <leafValues>
            -6.6450208425521851e-01 6.7681103944778442e-01</leafValues></_></weakClassifiers></_>
    <!-- stage 4 -->
    <_>
      <maxWeakCount>2</maxWeakCount>
      <stageThreshold>-2.6806026697158813e-01</stageThreshold>
      <weakClassifiers>
        <_>
          <internalNodes>
            0 -1 33 353721203 534190363 -1072639402 396165169 -519975542
            713130113 -1199537781 948668811</internalNodes>
          <leafValues>
            -8.7500000000000000e-01 5.2380955219268799e-01</leafValues></_>
        <_>
          <internalNodes>
            0 -1 26 -1319693609 -549334271 1090523603 -149912912
            -993959173 -293042111 -1967027973 -87907966</internalNodes>
          <leafValues>
            -6.9580042362213135e-01 6.0693973302841187e-01</leafValues></_></weakClassifiers></_>
    <!-- stage 5 -->
    <_>
      <maxWeakCount>4</maxWeakCount>
      <stageThreshold>-2.8437948226928711e-01</stageThreshold>
      <weakClassifiers>
        <_>
          <internalNodes>
            0 -1 4 -719858689 -536225773 1073873491 1904226329
            -771608808 -1048434126 -1451220901 1596401947</internalNodes>
          <leafValues>
            -7.8393352031707764e-01 5.6536501646041870e-01</leafValues></_>
        <_>
          <internalNodes>
            0 -1 22 -226297110 268456455 805732864 -1325299582
            -2146241149 1073889475 -1052769906 -209720345</internalNodes>
          <leafValues>
            -7.2047597169876099e-01 5.8627551794052124e-01</leafValues></_>
        <_>
          <internalNodes>
            0 -1 57 -258521004 1409323531 1073840641 -1069481981
            -2147450708 -1072660479 -1593475061 -656934501</internalNodes>
          <leafValues>
            -7.0128065347671509e-01 6.2165772914886475e-01</leafValues></_>
        <_>
          <internalNodes>
            0 -1 43 -670770979 1413513505 268472340 813761280
            -2130538334 -1207303550 180427 940285953</internalNodes>
          <leafValues>
            -7.0837920904159546e-01 6.5002036094665527e-01</leafValues></_></weakClassifiers></_>
    <!-- stage 6 -->
    <_>
      <maxWeakCount>2</maxWeakCount>
      <stageThreshold>-1.4296226203441620e-01</stageThreshold>
      <weakClassifiers>
        <_>
          <internalNodes>
            0 -1 53 491251675 60248992 9736849 1118469 8897235 981467148
            -1056841009 1775495823</internalNodes>
          <leafValues>
            -7.2266668081283569e-01 5.5826085805892944e-01</leafValues></_>
        <_>
          <internalNodes>
            0 -1 7 -372810795 2572289 16990337 -922254814 -931127201
            1513235266 -1992209169 -397721429</internalNodes>
          <leafValues>
            -7.0018815994262695e-01 5.7970440387725830e-01</leafValues></_></weakClassifiers></_>
    <!-- stage 7 -->
    <_>
      <maxWeakCount>4</maxWeakCount>
      <stageThreshold>-3.9635664224624634e-01</stageThreshold>
      <weakClassifiers>
        <_>
          <internalNodes>
            0 -1 30 -100406742 1359942657 278990916 1372012766
            -1061125594 587317283 -1467301241 -473435193</internalNodes>
          <leafValues>
            -6.8101263046264648e-01 5.7477480173110962e-01</leafValues></_>
        <_>
          <internalNodes>
            0 -1 36 1904757749 -606478696 -1810775715 -811954076
            1090824377 -1425473152 -1828067105 680528040</internalNodes>
          <leafValues>
            -7.3955631256103516e-01 5.5539530515670776e-01</leafValues></_>
        <_>
          <internalNodes>
            0 -1 58 -804529000 1347260417 233629 -1454288613 -670023680
            -99909632 -1610610542 -2140472509</internalNodes>
          <leafValues>
            -8.0270451307296753e-01 5.0014847517013550e-01</leafValues></_>
        <_>
          <internalNodes>
            0 -1 50 -535049554 -218038271 268976129 -184319737
            -922631496 -2126478974 74169 1124844363</internalNodes>
          <leafValues>
            -7.2382223606109619e-01 5.9099113941192627e-01</leafValues></_></weakClassifiers></_>
    <!-- stage 8 -->
    <_>
      <maxWeakCount>4</maxWeakCount>
      <stageThreshold>-3.7033310532569885e-01</stageThreshold>
      <weakClassifiers>
        <_>
          <internalNodes>
            0 -1 49 -526650705 -606879480 1073747205 -226008815
            -2147449949 -536707062 639181 1100959776</internalNodes>
          <leafValues>
            -7.1823203563690186e-01 5.2721089124679565e-01</leafValues></_>
        <_>
          <internalNodes>
            0 -1 15 1516245656 1405161753 -1743709793 -16433135
            1216467448 -528482302 -2004842024 538970376</internalNodes>
          <leafValues>
            -7.4678206443786621e-01 4.5948618650436401e-01</leafValues></_>
        <_>
          <internalNodes>
            0 -1 28 -854067932 1396826113 -2147412904 -786286565
            1090945506 -1331593216 -1073282421 1463017999</internalNodes>
          <leafValues>
            -7.4295794963836670e-01 4.8972916603088379e-01</leafValues></_>
        <_>
          <internalNodes>
            0 -1 34 906168343 303239554 469 -551430896 -2142976885
            -1446543174 -2079618930 -1460016948</internalNodes>
          <leafValues>
            -6.0131645202636719e-01 6.3371264934539795e-01</leafValues></_></weakClassifiers></_>
    <!-- stage 9 -->
    <_>
      <maxWeakCount>4</maxWeakCount>
      <stageThreshold>-1.7916691303253174e-01</stageThreshold>
      <weakClassifiers>
        <_>
          <internalNodes>
            0 -1 8 1075266015 -753713145 -1996226311 -721287166
            176160954 1250557953 1115771643 2139759011</internalNodes>
          <leafValues>
            -7.6829266548156738e-01 4.8553055524826050e-01</leafValues></_>
        <_>
          <internalNodes>
            0 -1 45 -443297451 -2142957561 -1073676067 -82339381
            -2147052833 -1991630830 16384 -1729128253</internalNodes>
          <leafValues>
            -6.4626884460449219e-01 5.9107142686843872e-01</leafValues></_>
        <_>
          <internalNodes>
            0 -1 25 -262273 -4185 -1 -67633153 -950281 -130 -393249
            -754741461</internalNodes>
          <leafValues>
            -5.1160669326782227e-01 7.5480836629867554e-01</leafValues></_>
        <_>
          <internalNodes>
            0 -1 40 -992448292 -536718270 1107297293 -788323799
            -2134850880 -1602142208 737307 251382363</internalNodes>
          <leafValues>
            -7.4416220188140869e-01 5.4429292678833008e-01</leafValues></_></weakClassifiers></_>
    <!-- stage 10 -->
    <_>
      <maxWeakCount>4</maxWeakCount>
      <stageThreshold>-2.5512719154357910e-01</stageThreshold>
      <weakClassifiers>
        <_>
          <internalNodes>
            0 -1 60 -137111073 75766109 152043682 9494630 -2147344254
            142802946 -2109243358 110088327</internalNodes>
          <leafValues>
            -7.8181821107864380e-01 4.9677419662475586e-01</leafValues></_>
        <_>
          <internalNodes>
            0 -1 20 -1449734238 1889681409 -2147314348 1342279879
            9470083 817987584 1074168043 -761795861</internalNodes>
          <leafValues>
            -7.0246553421020508e-01 5.7917690277099609e-01</leafValues></_>
        <_>
          <internalNodes>
            0 -1 18 -1742942189 -648609773 17826197 1032851970 537608395
            -1471649650 -1962752871 -393028158</internalNodes>
          <leafValues>
            -6.6451543569564819e-01 6.2633621692657471e-01</leafValues></_>
        <_>
          <internalNodes>
            0 -1 31 404754845 1544069120 58720549 1929379840 -1979670358
            898170881 -585072498 -1198487288</internalNodes>
          <leafValues>
            -6.6656285524368286e-01 6.5731424093246460e-01</leafValues></_></weakClassifiers></_>
    <!-- stage 11 -->
    <_>
      <maxWeakCount>4</maxWeakCount>
      <stageThreshold>-2.9342764616012573e-01</stageThreshold>
      <weakClassifiers>
        <_>
          <internalNodes>
            0 -1 37 806638077 -603910000 -1055653679 -1735654583
            -1316960119 -1979678591 -1975508737 958406784</internalNodes>
          <leafValues>
            -6.8783068656921387e-01 5.4195803403854370e-01</leafValues></_>
        <_>
          <internalNodes>
            0 -1 23 -1038882974 39125010 302683092 1879576912 9134499
            268468360 -1610547036 -262434561</internalNodes>
          <leafValues>
            -7.3631119728088379e-01 5.2933299541473389e-01</leafValues></_>
        <_>
          <internalNodes>
            0 -1 61 -1572015429 218370058 -2129592315 -1140799345
            -2143250293 -1073609721 -2113748976 -1460819041</internalNodes>
          <leafValues>
            -7.2986114025115967e-01 5.5110001564025879e-01</leafValues></_>
        <_>
          <internalNodes>
            0 -1 55 -668999212 1905607061 1073741824 285212931
            1107314827 268451848 1476427907 -767301157</internalNodes>
          <leafValues>
            -6.3485753536224365e-01 6.6962426900863647e-01</leafValues></_></weakClassifiers></_>
    <!-- stage 12 -->
    <_>
      <maxWeakCount>4</maxWeakCount>
      <stageThreshold>-3.6140418052673340e-01</stageThreshold>
      <weakClassifiers>
        <_>
          <internalNodes>
            0 -1 52 -956305622 -361760925 1879572478 2113061398
            1291775982 1442639725 1430257149 -1069559829</internalNodes>
          <leafValues>
            -6.2337660789489746e-01 6.9262295961380005e-01</leafValues></_>
        <_>
          <internalNodes>
            0 -1 48 -704065520 1645740032 33620305 -1727725509
            -1039756786 -1962934272 -2147483606 -863709105</internalNodes>
          <leafValues>
            -7.9914551973342896e-01 5.2993398904800415e-01</leafValues></_>
        <_>
          <internalNodes>
            0 -1 2 -1996043502 -670171134 -2147336187 -1744656384
            -2122153850 -796891070 -805273169 1896308807</internalNodes>
          <leafValues>
            -7.5089734792709351e-01 5.2167409658432007e-01</leafValues></_>
        <_>
          <internalNodes>
            0 -1 35 -718245552 478806123 573705 -1843724079 -2013232974
            -201326335 1140883594 134742156</internalNodes>
          <leafValues>
            -7.7655565738677979e-01 5.7502937316894531e-01</leafValues></_></weakClassifiers></_>
    <!-- stage 13 -->
    <_>
      <maxWeakCount>4</maxWeakCount>
      <stageThreshold>-1.2277792692184448e+00</stageThreshold>
      <weakClassifiers>
        <_>
          <internalNodes>
            0 -1 11 -41153 -268470257 -100352 -666763084 -167835611
            -1073774601 -8426625 -559241</internalNodes>
          <leafValues>
            -6.1440676450729370e-01 7.1129709482192993e-01</leafValues></_>
        <_>
          <internalNodes>
            0 -1 24 1090898310 1694564358 65537 1276203029 -2146369366
            -536866800 1091207186 1946073610</internalNodes>
          <leafValues>
            -6.8566381931304932e-01 6.3490629196166992e-01</leafValues></_>
        <_>
          <internalNodes>
            0 -1 63 -2033855713 -2097151998 1073758347 33332 18055623
            704708608 1107886793 -1227237409</internalNodes>
          <leafValues>
            -5.9802669286727905e-01 7.8135043382644653e-01</leafValues></_>
        <_>
          <internalNodes>
            0 -1 12 -1190959805 1073811841 -1073741824 -805240703
            -668389151 -1878966239 -1845473064 -1010617470</internalNodes>
          <leafValues>
            -6.6607177257537842e-01 6.7031806707382202e-01</leafValues></_></weakClassifiers></_>
    <!-- stage 14 -->
    <_>
      <maxWeakCount>5</maxWeakCount>
      <stageThreshold>-7.1332049369812012e-01</stageThreshold>
      <weakClassifiers>
        <_>
          <internalNodes>
            0 -1 56 -402688506 1531969207 -1074794784 -260571137
            -403365835 1442217815 -134220033 -134252553</internalNodes>
          <leafValues>
            -5.8403360843658447e-01 6.9198310375213623e-01</leafValues></_>
        <_>
          <internalNodes>
            0 -1 5 1662636123 1497694272 262168 -729202688 1216432130
            134218240 1145176098 1945067842</internalNodes>
          <leafValues>
            -7.7945619821548462e-01 5.3444498777389526e-01</leafValues></_>
        <_>
          <internalNodes>
            0 -1 39 -803745711 411107353 268507447 1728778504
            -1065303855 -1735884632 -1744795472 -1467448950</internalNodes>
          <leafValues>
            -6.5179646015167236e-01 6.5401405096054077e-01</leafValues></_>
        <_>
          <internalNodes>
            0 -1 51 -799807413 35951104 655883 285804546 1749092866
            545275907 1895899136 836494741</internalNodes>
          <leafValues>
            -6.7471736669540405e-01 6.9846850633621216e-01</leafValues></_>
        <_>
          <internalNodes>
            0 -1 9 648127024 45555503 871279135 -358351130 -268485802
            77559807 -269006097 -806174721</internalNodes>
          <leafValues>
            -6.4302855730056763e-01 7.5515842437744141e-01</leafValues></_></weakClassifiers></_>
    <!-- stage 15 -->
    <_>
      <maxWeakCount>3</maxWeakCount>
      <stageThreshold>-5.9621876478195190e-01</stageThreshold>
      <weakClassifiers>
        <_>
          <internalNodes>
            0 -1 32 -84084757 -134807561 -16842754 1123051360 -50889419
            1182234487 -134251051 656877301</internalNodes>
          <leafValues>
            -7.5111109018325806e-01 7.7600002288818359e-01</leafValues></_>
        <_>
          <internalNodes>
            0 -1 38 1073758481 -1072626684 1074266389 -519897087
            -2013233143 -2130706400 -1937505152 -1460927936</internalNodes>
          <leafValues>
            -6.7871898412704468e-01 8.8054752349853516e-01</leafValues></_>
        <_>
          <internalNodes>
            0 -1 47 -805224111 1343275456 -1073594351 -1610530750
            134217856 1086399552 -2147483486 268533767</internalNodes>
          <leafValues>
            -6.9349980354309082e-01 8.5570764541625977e-01</leafValues></_></weakClassifiers></_>
    <!-- stage 16 -->
    <_>
      <maxWeakCount>4</maxWeakCount>
      <stageThreshold>-8.7970979511737823e-02</stageThreshold>
      <weakClassifiers>
        <_>
          <internalNodes>
            0 -1 54 -268515794 1937702711 -4102 1963454462 1475858339
            1680867111 -32769 -574111745</internalNodes>
          <leafValues>
            -5.4216867685317993e-01 7.0796459913253784e-01</leafValues></_>
        <_>
          <internalNodes>
            0 -1 29 -263121641 25362693 131089 1477443984 147587
            -2146949118 -2002189813 1120028918</internalNodes>
          <leafValues>
            -7.5979250669479370e-01 5.3492796421051025e-01</leafValues></_>
        <_>
          <internalNodes>
            0 -1 10 -1056931520 -1023209455 65544 77022208 42106880
            8978562 -2147368421 -396664701</internalNodes>
          <leafValues>
            -6.7524015903472900e-01 6.0808140039443970e-01</leafValues></_>
        <_>
          <internalNodes>
            0 -1 62 9624030 -1735933696 16842771 -1388150784 1073741961
            973219840 -134184949 -1318943101</internalNodes>
          <leafValues>
            -6.3607734441757202e-01 6.3909709453582764e-01</leafValues></_></weakClassifiers></_>
    <!-- stage 17 -->
    <_>
      <maxWeakCount>3</maxWeakCount>
      <stageThreshold>-5.6064826250076294e-01</stageThreshold>
      <weakClassifiers>
        <_>
          <internalNodes>
            0 -1 44 134598318 -1379848226 402661246 501153953 1876946149
            72187407 -131 1205982586</internalNodes>
          <leafValues>
            -7.3392462730407715e-01 7.6352703571319580e-01</leafValues></_>
        <_>
          <internalNodes>
            0 -1 1 -1507367647 -1903362241 1874278205 600522484
            -1520993100 360153071 728161939 242870767</internalNodes>
          <leafValues>
            -5.7040268182754517e-01 9.3586093187332153e-01</leafValues></_>
        <_>
          <internalNodes>
            0 -1 16 -139477149 581959670 -262165 1643167614 1071382287
            1601175494 2130667383 1953587015</internalNodes>
          <leafValues>
            -7.5377261638641357e-01 7.7587383985519409e-01</leafValues></_></weakClassifiers></_>
    <!-- stage 18 -->
    <_>
      <maxWeakCount>2</maxWeakCount>
      <stageThreshold>1.8338587880134583e-01</stageThreshold>
      <weakClassifiers>
        <_>
          <internalNodes>
            0 -1 46 1878982444 -600817676 -285212678 452722367 -1155
            -1797914629 2105408800 16021179</internalNodes>
          <leafValues>
            -7.3076921701431274e-01 1.</leafValues></_>
        <_>
          <internalNodes>
            0 -1 27 33554435 0 0 -1073676032 -2147483640 134217728
            1073750274 1348503808</internalNodes>
          <leafValues>
            -7.8660458326339722e-01 9.1415512561798096e-01</leafValues></_></weakClassifiers></_>
    <!-- stage 19 -->
    <_>
      <maxWeakCount>1</maxWeakCount>
      <stageThreshold>1.</stageThreshold>
      <weakClassifiers>
        <_>
          <internalNodes>
            0 -1 0 0 0 4194304 0 0 0 8 536870912</internalNodes>
          <leafValues>
            -1. 1.</leafValues></_></weakClassifiers></_></stages>
  <features>
    <_>
      <rect>
        0 1 8 4</rect></_>
    <_>
      <rect>
        0 5 3 2</rect></_>
    <_>
      <rect>
        0 8 2 5</rect></_>
    <_>
      <rect>
        0 11 4 3</rect></_>
    <_>
      <rect>
        0 12 4 4</rect></_>
    <_>
      <rect>
        0 14 2 3</rect></_>
    <_>
      <rect>
        0 16 2 2</rect></_>
    <_>
      <rect>
        0 18 2 2</rect></_>
    <_>
      <rect>
        0 18 3 2</rect></_>
    <_>
      <rect>
        1 1 6 3</rect></_>
    <_>
      <rect>
        1 3 2 6</rect></_>
    <_>
      <rect>
        1 15 1 3</rect></_>
    <_>
      <rect>
        1 18 1 2</rect></_>
    <_>
      <rect>
        1 18 4 2</rect></_>
    <_>
      <rect>
        2 12 6 4</rect></_>
    <_>
      <rect>
        2 19 6 1</rect></_>
    <_>
      <rect>
        3 14 2 1</rect></_>
    <_>
      <rect>
        3 15 7 3</rect></_>
    <_>
      <rect>
        4 13 3 2</rect></_>
    <_>
      <rect>
        4 13 5 2</rect></_>
    <_>
      <rect>
        4 15 1 2</rect></_>
    <_>
      <rect>
        4 16 1 1</rect></_>
    <_>
      <rect>
        4 16 1 2</rect></_>
    <_>
      <rect>
        4 17 1 1</rect></_>
    <_>
      <rect>
        5 9 5 5</rect></_>
    <_>
      <rect>
        5 11 1 3</rect></_>
    <_>
      <rect>
        5 13 3 2</rect></_>
    <_>
      <rect>
        5 13 6 3</rect></_>
    <_>
      <rect>
        5 15 1 2</rect></_>
    <_>
      <rect>
        5 15 2 2</rect></_>
    <_>
      <rect>
        5 16 1 1</rect></_>
    <_>
      <rect>
        6 12 5 1</rect></_>
    <_>
      <rect>
        6 17 1 1</rect></_>
    <_>
      <rect>
        6 18 6 2</rect></_>
    <_>
      <rect>
        7 13 4 2</rect></_>
    <_>
      <rect>
        7 19 4 1</rect></_>
    <_>
      <rect>
        9 17 2 1</rect></_>
    <_>
      <rect>
        9 18 2 1</rect></_>
    <_>
      <rect>
        10 15 2 1</rect></_>
    <_>
      <rect>
        10 17 3 1</rect></_>
    <_>
      <rect>
        12 0 4 8</rect></_>
    <_>
      <rect>
        12 10 4 4</rect></_>
    <_>
      <rect>
        12 18 4 2</rect></_>
    <_>
      <rect>
        12 19 4 1</rect></_>
    <_>
      <rect>
        13 15 3 1</rect></_>
    <_>
      <rect>
        13 16 2 1</rect></_>
    <_>
      <rect>
        13 18 2 1</rect></_>
    <_>
      <rect>
        13 19 2 1</rect></_>
    <_>
      <rect>
        14 4 3 5</rect></_>
    <_>
      <rect>
        15 13 1 2</rect></_>
    <_>
      <rect>
        15 14 2 2</rect></_>
    <_>
      <rect>
        15 15 1 2</rect></_>
    <_>
      <rect>
        16 15 1 2</rect></_>
    <_>
      <rect>
        17 15 2 3</rect></_>
    <_>
      <rect>
        17 16 1 1</rect></_>
    <_>
      <rect>
        17 16 1 2</rect></_>
    <_>
      <rect>
        17 17 1 1</rect></_>
    <_>
      <rect>
        18 3 2 6</rect></_>
    <_>
      <rect>
        18 10 2 3</rect></_>
    <_>
      <rect>
        18 11 2 2</rect></_>
    <_>
      <rect>
        18 15 2 2</rect></_>
    <_>
      <rect>
        20 15 1 3</rect></_>
    <_>
      <rect>
        20 21 1 1</rect></_>
    <_>
      <rect>
        21 18 1 2</rect></_></features></cascade>
</opencv_storage>
